digraph Tree {
node [shape=box] ;
0 [label="X[0] <= 90.0\ngini = 0.808\nsamples = 323\nvalue = [9, 3, 5, 1, 19, 76, 5, 28, 1, 1, 5, 2, 3, 1\n3, 5, 8, 5, 1, 12, 2, 12, 2, 112, 1, 1]"] ;
1 [label="X[28332] <= 0.5\ngini = 0.401\nsamples = 118\nvalue = [0, 0, 0, 1, 0, 14, 0, 2, 1, 0, 2, 0, 0, 0\n0, 0, 2, 0, 0, 5, 0, 0, 0, 90, 0, 1]"] ;
0 -> 1 [labeldistance=2.5, labelangle=45, headlabel="True"] ;
7 [label="X[2901] <= 0.5\ngini = 0.324\nsamples = 110\nvalue = [0, 0, 0, 1, 0, 6, 0, 2, 1, 0, 2, 0, 0, 0\n0, 0, 2, 0, 0, 5, 0, 0, 0, 90, 0, 1]"] ;
1 -> 7 ;
11 [label="gini = 0.234\nsamples = 103\nvalue = [0, 0, 0, 1, 0, 3, 0, 1, 1, 0, 1, 0, 0, 0\n0, 0, 2, 0, 0, 3, 0, 0, 0, 90, 0, 1]"] ;
7 -> 11 ;
12 [label="gini = 0.694\nsamples = 7\nvalue = [0, 0, 0, 0, 0, 3, 0, 1, 0, 0, 1, 0, 0, 0\n0, 0, 0, 0, 0, 2, 0, 0, 0, 0, 0, 0]"] ;
7 -> 12 ;
8 [label="gini = 0.0\nsamples = 8\nvalue = [0, 0, 0, 0, 0, 8, 0, 0, 0, 0, 0, 0, 0, 0\n0, 0, 0, 0, 0, 0, 0, 0, 0, 0, 0, 0]"] ;
1 -> 8 ;
2 [label="X[28343] <= 0.5\ngini = 0.861\nsamples = 205\nvalue = [9, 3, 5, 0, 19, 62, 5, 26, 0, 1, 3, 2, 3, 1\n3, 5, 6, 5, 1, 7, 2, 12, 2, 22, 1, 0]"] ;
0 -> 2 [labeldistance=2.5, labelangle=-45, headlabel="False"] ;
3 [label="X[13671] <= 0.5\ngini = 0.842\nsamples = 182\nvalue = [9, 3, 5, 0, 19, 61, 5, 26, 0, 1, 3, 2, 3, 1\n3, 5, 6, 5, 1, 7, 2, 12, 2, 0, 1, 0]"] ;
2 -> 3 ;
5 [label="X[16962] <= 0.5\ngini = 0.909\nsamples = 117\nvalue = [8, 3, 5, 0, 14, 14, 5, 23, 0, 1, 3, 2, 3, 1\n3, 4, 4, 4, 1, 5, 2, 9, 2, 0, 1, 0]"] ;
3 -> 5 ;
9 [label="X[19002] <= 1.0\ngini = 0.922\nsamples = 99\nvalue = [8, 3, 5, 0, 14, 14, 2, 9, 0, 1, 3, 2, 3, 1\n3, 4, 4, 4, 1, 4, 2, 9, 2, 0, 1, 0]"] ;
5 -> 9 ;
13 [label="X[20330] <= 1.5\ngini = 0.917\nsamples = 95\nvalue = [8, 3, 5, 0, 14, 14, 2, 9, 0, 1, 3, 2, 3, 1\n3, 0, 4, 4, 1, 4, 2, 9, 2, 0, 1, 0]"] ;
9 -> 13 ;
15 [label="gini = 0.912\nsamples = 91\nvalue = [8, 3, 5, 0, 14, 14, 2, 9, 0, 1, 3, 2, 3, 1\n3, 0, 4, 0, 1, 4, 2, 9, 2, 0, 1, 0]"] ;
13 -> 15 ;
16 [label="gini = 0.0\nsamples = 4\nvalue = [0, 0, 0, 0, 0, 0, 0, 0, 0, 0, 0, 0, 0, 0\n0, 0, 0, 4, 0, 0, 0, 0, 0, 0, 0, 0]"] ;
13 -> 16 ;
14 [label="gini = 0.0\nsamples = 4\nvalue = [0, 0, 0, 0, 0, 0, 0, 0, 0, 0, 0, 0, 0, 0\n0, 4, 0, 0, 0, 0, 0, 0, 0, 0, 0, 0]"] ;
9 -> 14 ;
10 [label="X[27813] <= 0.5\ngini = 0.364\nsamples = 18\nvalue = [0, 0, 0, 0, 0, 0, 3, 14, 0, 0, 0, 0, 0, 0\n0, 0, 0, 0, 0, 1, 0, 0, 0, 0, 0, 0]"] ;
5 -> 10 ;
17 [label="gini = 0.0\nsamples = 13\nvalue = [0, 0, 0, 0, 0, 0, 0, 13, 0, 0, 0, 0, 0, 0\n0, 0, 0, 0, 0, 0, 0, 0, 0, 0, 0, 0]"] ;
10 -> 17 ;
18 [label="gini = 0.56\nsamples = 5\nvalue = [0, 0, 0, 0, 0, 0, 3, 1, 0, 0, 0, 0, 0, 0\n0, 0, 0, 0, 0, 1, 0, 0, 0, 0, 0, 0]"] ;
10 -> 18 ;
6 [label="gini = 0.464\nsamples = 65\nvalue = [1, 0, 0, 0, 5, 47, 0, 3, 0, 0, 0, 0, 0, 0\n0, 1, 2, 1, 0, 2, 0, 3, 0, 0, 0, 0]"] ;
3 -> 6 ;
4 [label="gini = 0.083\nsamples = 23\nvalue = [0, 0, 0, 0, 0, 1, 0, 0, 0, 0, 0, 0, 0, 0\n0, 0, 0, 0, 0, 0, 0, 0, 0, 22, 0, 0]"] ;
2 -> 4 ;
}
