digraph Tree {
node [shape=box] ;
0 [label="X[0] <= 90.0\ngini = 0.809\nsamples = 323\nvalue = [1, 8, 3, 5, 1, 24, 65, 6, 27, 1, 6, 2, 2, 1\n4, 4, 9, 4, 1, 11, 2, 15, 2, 117, 1, 1]"] ;
1 [label="X[28332] <= 0.5\ngini = 0.391\nsamples = 122\nvalue = [1, 0, 0, 0, 1, 1, 14, 0, 2, 0, 2, 0, 0, 0\n0, 0, 2, 0, 0, 4, 0, 0, 0, 94, 0, 1]"] ;
0 -> 1 [labeldistance=2.5, labelangle=45, headlabel="True"] ;
5 [label="X[27507] <= 0.5\ngini = 0.292\nsamples = 112\nvalue = [1, 0, 0, 0, 1, 1, 4, 0, 2, 0, 2, 0, 0, 0\n0, 0, 2, 0, 0, 4, 0, 0, 0, 94, 0, 1]"] ;
1 -> 5 ;
11 [label="gini = 0.212\nsamples = 106\nvalue = [1, 0, 0, 0, 1, 1, 2, 0, 1, 0, 1, 0, 0, 0\n0, 0, 2, 0, 0, 2, 0, 0, 0, 94, 0, 1]"] ;
5 -> 11 ;
12 [label="gini = 0.722\nsamples = 6\nvalue = [0, 0, 0, 0, 0, 0, 2, 0, 1, 0, 1, 0, 0, 0\n0, 0, 0, 0, 0, 2, 0, 0, 0, 0, 0, 0]"] ;
5 -> 12 ;
6 [label="gini = 0.0\nsamples = 10\nvalue = [0, 0, 0, 0, 0, 0, 10, 0, 0, 0, 0, 0, 0, 0\n0, 0, 0, 0, 0, 0, 0, 0, 0, 0, 0, 0]"] ;
1 -> 6 ;
2 [label="X[28343] <= 0.5\ngini = 0.881\nsamples = 201\nvalue = [0, 8, 3, 5, 0, 23, 51, 6, 25, 1, 4, 2, 2, 1\n4, 4, 7, 4, 1, 7, 2, 15, 2, 23, 1, 0]"] ;
0 -> 2 [labeldistance=2.5, labelangle=-45, headlabel="False"] ;
3 [label="X[13671] <= 1.5\ngini = 0.87\nsamples = 180\nvalue = [0, 8, 3, 5, 0, 23, 50, 6, 25, 1, 4, 2, 2, 1\n4, 4, 7, 4, 1, 7, 2, 15, 2, 3, 1, 0]"] ;
2 -> 3 ;
7 [label="X[16962] <= 1.5\ngini = 0.909\nsamples = 133\nvalue = [0, 7, 3, 5, 0, 16, 17, 6, 25, 1, 4, 2, 2, 1\n4, 4, 7, 3, 1, 6, 2, 12, 1, 3, 1, 0]"] ;
3 -> 7 ;
9 [label="X[870] <= 0.5\ngini = 0.921\nsamples = 119\nvalue = [0, 7, 3, 5, 0, 16, 17, 4, 13, 1, 4, 2, 2, 1\n4, 4, 7, 3, 1, 6, 2, 12, 1, 3, 1, 0]"] ;
7 -> 9 ;
13 [label="X[19002] <= 1.0\ngini = 0.922\nsamples = 112\nvalue = [0, 7, 3, 5, 0, 16, 16, 4, 13, 1, 4, 2, 2, 1\n4, 4, 7, 3, 1, 6, 2, 6, 1, 3, 1, 0]"] ;
9 -> 13 ;
15 [label="X[23583] <= 0.5\ngini = 0.917\nsamples = 108\nvalue = [0, 7, 3, 5, 0, 16, 16, 4, 13, 1, 4, 2, 2, 1\n4, 0, 7, 3, 1, 6, 2, 6, 1, 3, 1, 0]"] ;
13 -> 15 ;
17 [label="X[24028] <= 0.5\ngini = 0.916\nsamples = 100\nvalue = [0, 7, 3, 5, 0, 16, 16, 3, 7, 1, 4, 2, 2, 1\n4, 0, 7, 3, 1, 6, 2, 6, 1, 2, 1, 0]"] ;
15 -> 17 ;
19 [label="X[11201] <= 1.5\ngini = 0.914\nsamples = 96\nvalue = [0, 7, 3, 5, 0, 16, 16, 3, 3, 1, 4, 2, 2, 1\n4, 0, 7, 3, 1, 6, 2, 6, 1, 2, 1, 0]"] ;
17 -> 19 ;
23 [label="X[13255] <= 0.5\ngini = 0.908\nsamples = 91\nvalue = [0, 7, 3, 1, 0, 16, 16, 3, 3, 1, 4, 2, 2, 1\n4, 0, 7, 3, 1, 5, 2, 6, 1, 2, 1, 0]"] ;
19 -> 23 ;
27 [label="X[18416] <= 0.5\ngini = 0.913\nsamples = 80\nvalue = [0, 6, 2, 1, 0, 9, 16, 3, 3, 1, 4, 1, 2, 1\n4, 0, 7, 3, 1, 5, 2, 5, 1, 2, 1, 0]"] ;
23 -> 27 ;
29 [label="X[20330] <= 2.0\ngini = 0.905\nsamples = 75\nvalue = [0, 6, 2, 1, 0, 9, 16, 3, 3, 1, 4, 1, 1, 1\n0, 0, 7, 3, 1, 5, 2, 5, 1, 2, 1, 0]"] ;
27 -> 29 ;
33 [label="X[4892] <= 0.5\ngini = 0.899\nsamples = 72\nvalue = [0, 6, 2, 1, 0, 9, 16, 3, 3, 1, 4, 1, 1, 1\n0, 0, 7, 0, 1, 5, 2, 5, 1, 2, 1, 0]"] ;
29 -> 33 ;
37 [label="gini = 0.915\nsamples = 64\nvalue = [0, 6, 2, 1, 0, 8, 10, 3, 3, 1, 4, 1, 1, 1\n0, 0, 7, 0, 1, 5, 2, 5, 1, 1, 1, 0]"] ;
33 -> 37 ;
38 [label="gini = 0.406\nsamples = 8\nvalue = [0, 0, 0, 0, 0, 1, 6, 0, 0, 0, 0, 0, 0, 0\n0, 0, 0, 0, 0, 0, 0, 0, 0, 1, 0, 0]"] ;
33 -> 38 ;
34 [label="gini = 0.0\nsamples = 3\nvalue = [0, 0, 0, 0, 0, 0, 0, 0, 0, 0, 0, 0, 0, 0\n0, 0, 0, 3, 0, 0, 0, 0, 0, 0, 0, 0]"] ;
29 -> 34 ;
30 [label="gini = 0.32\nsamples = 5\nvalue = [0, 0, 0, 0, 0, 0, 0, 0, 0, 0, 0, 0, 1, 0\n4, 0, 0, 0, 0, 0, 0, 0, 0, 0, 0, 0]"] ;
27 -> 30 ;
28 [label="gini = 0.562\nsamples = 11\nvalue = [0, 1, 1, 0, 0, 7, 0, 0, 0, 0, 0, 1, 0, 0\n0, 0, 0, 0, 0, 0, 0, 1, 0, 0, 0, 0]"] ;
23 -> 28 ;
24 [label="gini = 0.32\nsamples = 5\nvalue = [0, 0, 0, 4, 0, 0, 0, 0, 0, 0, 0, 0, 0, 0\n0, 0, 0, 0, 0, 1, 0, 0, 0, 0, 0, 0]"] ;
19 -> 24 ;
20 [label="gini = 0.0\nsamples = 4\nvalue = [0, 0, 0, 0, 0, 0, 0, 0, 4, 0, 0, 0, 0, 0\n0, 0, 0, 0, 0, 0, 0, 0, 0, 0, 0, 0]"] ;
17 -> 20 ;
18 [label="gini = 0.406\nsamples = 8\nvalue = [0, 0, 0, 0, 0, 0, 0, 1, 6, 0, 0, 0, 0, 0\n0, 0, 0, 0, 0, 0, 0, 0, 0, 1, 0, 0]"] ;
15 -> 18 ;
16 [label="gini = 0.0\nsamples = 4\nvalue = [0, 0, 0, 0, 0, 0, 0, 0, 0, 0, 0, 0, 0, 0\n0, 4, 0, 0, 0, 0, 0, 0, 0, 0, 0, 0]"] ;
13 -> 16 ;
14 [label="gini = 0.245\nsamples = 7\nvalue = [0, 0, 0, 0, 0, 0, 1, 0, 0, 0, 0, 0, 0, 0\n0, 0, 0, 0, 0, 0, 0, 6, 0, 0, 0, 0]"] ;
9 -> 14 ;
10 [label="X[14743] <= 0.5\ngini = 0.245\nsamples = 14\nvalue = [0, 0, 0, 0, 0, 0, 0, 2, 12, 0, 0, 0, 0, 0\n0, 0, 0, 0, 0, 0, 0, 0, 0, 0, 0, 0]"] ;
7 -> 10 ;
25 [label="gini = 0.0\nsamples = 12\nvalue = [0, 0, 0, 0, 0, 0, 0, 0, 12, 0, 0, 0, 0, 0\n0, 0, 0, 0, 0, 0, 0, 0, 0, 0, 0, 0]"] ;
10 -> 25 ;
26 [label="gini = 0.0\nsamples = 2\nvalue = [0, 0, 0, 0, 0, 0, 0, 2, 0, 0, 0, 0, 0, 0\n0, 0, 0, 0, 0, 0, 0, 0, 0, 0, 0, 0]"] ;
10 -> 26 ;
8 [label="X[6632] <= 0.5\ngini = 0.479\nsamples = 47\nvalue = [0, 1, 0, 0, 0, 7, 33, 0, 0, 0, 0, 0, 0, 0\n0, 0, 0, 1, 0, 1, 0, 3, 1, 0, 0, 0]"] ;
3 -> 8 ;
21 [label="X[6121] <= 0.5\ngini = 0.423\nsamples = 44\nvalue = [0, 1, 0, 0, 0, 4, 33, 0, 0, 0, 0, 0, 0, 0\n0, 0, 0, 1, 0, 1, 0, 3, 1, 0, 0, 0]"] ;
8 -> 21 ;
31 [label="X[13763] <= 0.5\ngini = 0.34\nsamples = 41\nvalue = [0, 1, 0, 0, 0, 4, 33, 0, 0, 0, 0, 0, 0, 0\n0, 0, 0, 1, 0, 1, 0, 1, 0, 0, 0, 0]"] ;
21 -> 31 ;
35 [label="gini = 0.279\nsamples = 39\nvalue = [0, 1, 0, 0, 0, 2, 33, 0, 0, 0, 0, 0, 0, 0\n0, 0, 0, 1, 0, 1, 0, 1, 0, 0, 0, 0]"] ;
31 -> 35 ;
36 [label="gini = 0.0\nsamples = 2\nvalue = [0, 0, 0, 0, 0, 2, 0, 0, 0, 0, 0, 0, 0, 0\n0, 0, 0, 0, 0, 0, 0, 0, 0, 0, 0, 0]"] ;
31 -> 36 ;
32 [label="gini = 0.444\nsamples = 3\nvalue = [0, 0, 0, 0, 0, 0, 0, 0, 0, 0, 0, 0, 0, 0\n0, 0, 0, 0, 0, 0, 0, 2, 1, 0, 0, 0]"] ;
21 -> 32 ;
22 [label="gini = 0.0\nsamples = 3\nvalue = [0, 0, 0, 0, 0, 3, 0, 0, 0, 0, 0, 0, 0, 0\n0, 0, 0, 0, 0, 0, 0, 0, 0, 0, 0, 0]"] ;
8 -> 22 ;
4 [label="gini = 0.091\nsamples = 21\nvalue = [0, 0, 0, 0, 0, 0, 1, 0, 0, 0, 0, 0, 0, 0\n0, 0, 0, 0, 0, 0, 0, 0, 0, 20, 0, 0]"] ;
2 -> 4 ;
}
